17 64
Withaferin -0.39339122 0.10089483 0.49728075 0.35952246 -0.23162587 -0.6434223 0.26498705 0.111858934 -0.015403756 -0.49948007 0.3295909 0.27122316 -0.0058449553 0.12374472 -0.2600635 -0.15244192 -0.19160597 0.15335688 0.08525997 -0.14823894 0.11025599 0.08800576 0.42045194 -0.14146578 0.17878823 0.21867831 -0.3338317 0.31438515 -0.27007315 -0.23879689 -0.08081248 -0.01627131 -0.19703126 -0.3220442 0.078117274 0.14383224 0.29069698 0.12865202 0.2073365 -0.06875254 0.16114634 0.2627457 -0.4140785 -0.5618278 0.2674241 -0.18874773 -0.113232106 0.20687835 0.19427876 0.15764953 -0.2550012 0.27917692 -0.22641474 0.28072906 0.5427848 0.12840642 0.33868235 -0.26272023 -0.2723797 0.33442578 -0.13537519 -0.22676352 -0.45650506 -0.24040589
IL6 -0.20905556 0.020153511 0.4204963 0.08770155 0.046861283 -0.076393075 -0.16724 0.052845415 0.098812915 -0.29258758 0.5357077 0.070125274 0.20403913 -0.22152448 -0.42875585 -0.5171396 -0.25132045 -0.0002560168 -0.089867175 0.2008153 -0.15565595 -0.067085 0.32573608 -0.13135816 -0.32508898 0.4754694 -0.35509378 0.08375012 -0.2574539 0.024269912 0.162308 0.18762363 -0.536364 -0.031695068 0.44831404 0.0541772 -0.29272568 0.059000712 0.46888253 0.40456364 0.13565026 -0.0633322 -0.23694585 -0.024227066 -0.09809355 -0.37440073 0.3615152 -0.07931229 -0.3274476 0.17218709 0.2675073 0.23139077 0.16180785 0.16353177 -0.036725745 0.15756123 0.36417624 -0.23383383 0.12805578 0.08190592 0.20312138 -0.13850828 -0.06861646 0.22062457
NFE2L2 -0.13060522 0.15489 0.655852 0.033794414 -0.22269875 -0.25022236 0.029530127 -0.02832714 0.3313072 -0.04652949 0.38078102 0.15610929 -0.12773067 -0.43753308 -0.25902277 0.009258884 0.16939269 -0.016428556 0.21699654 0.32796097 0.24667649 0.044440508 0.27889377 -0.13196814 0.012936545 0.15248117 -0.15662028 0.17873818 0.24767698 0.14804432 -0.043440297 0.25846335 -0.4944326 0.13063908 0.06658735 -0.083820425 -0.016575454 0.42248517 0.6770315 -0.21692194 0.19066857 0.2983326 0.21895339 -0.537963 0.25222254 -0.21361008 0.00702778 0.09893865 -0.34378064 -0.38973355 0.31238744 -0.24242301 -0.037054572 0.3249517 0.29075128 -0.23457028 0.015745945 0.041586924 -0.044097543 -0.443182 -0.09844402 -0.15035012 0.30056444 -0.11665447
Eugenol 0.062236313 -0.016383072 0.17127246 -0.011942481 0.075783916 -0.29450637 -0.15268944 0.06389312 -0.25749737 0.10390261 0.22907983 0.21956658 -0.051571056 2.767588e-05 -0.11820909 0.03973852 -0.2508539 0.17429966 -0.12011414 0.3731509 0.51596594 -0.15015873 0.42217273 -0.26453224 0.14633583 0.3217157 -0.45936114 -0.19283961 -0.12619086 -0.371453 -0.1507465 -0.23035671 -0.11206533 -0.23836643 0.3052693 0.47441238 -0.1611285 0.23801436 0.3368323 0.054451365 0.13175792 0.27913177 -0.21917525 -0.44479835 -0.12737301 0.035077758 -0.18291938 -0.24339856 -0.10414427 -0.16694407 0.28941822 0.4382712 0.41284683 0.23378347 0.42283672 -0.042015437 -0.07069302 -0.067463346 0.24112684 -0.23206583 0.039133616 -0.4880267 -0.10668716 0.1933835
TNF 0.06973931 -0.01306471 0.14632033 -0.03732522 0.08895938 -0.29608017 -0.13053678 0.067044444 -0.28403297 0.13931325 0.24669927 0.23737589 -0.08027861 0.0061964947 -0.095680356 0.060911953 -0.23379324 0.17342362 -0.13048808 0.41710028 0.54313856 -0.15310724 0.40612578 -0.2675398 0.14301194 0.28692406 -0.47433797 -0.2007182 -0.107727244 -0.3870016 -0.16293298 -0.24225996 -0.09471296 -0.2326509 0.28916603 0.49517563 -0.1327666 0.22715648 0.3389021 0.08425532 0.15348421 0.28758875 -0.18132141 -0.4558842 -0.1569704 0.07268793 -0.19047786 -0.26087993 -0.088741034 -0.1838877 0.30220848 0.45882496 0.43944994 0.20828211 0.44588587 -0.025642604 -0.06592271 -0.06814256 0.27462122 -0.25205153 0.070724055 -0.50215864 -0.10747164 0.22619623
Curcumin -0.14275709 0.14713265 0.7028584 0.07213539 -0.25216696 -0.26067302 0.0390621 -0.025074815 0.33697876 -0.07542283 0.3984117 0.14653897 -0.15709913 -0.44640675 -0.26034713 0.014633252 0.1882185 -0.039782234 0.19683792 0.36274263 0.26107275 0.052411698 0.3072395 -0.13355282 0.027727418 0.17291714 -0.17142022 0.17408337 0.22216493 0.13191848 -0.03313232 0.25821215 -0.53277403 0.10263881 0.07773804 -0.0737022 -0.020387366 0.45459858 0.71546793 -0.21809794 0.19346765 0.31362078 0.23278236 -0.56167346 0.26404238 -0.25800905 0.013250108 0.13332108 -0.35337856 -0.41188934 0.3270292 -0.24189632 -0.025323078 0.35988936 0.30223522 -0.23601976 0.019136183 0.048950583 -0.060991187 -0.4296905 -0.1166045 -0.1463061 0.30644616 -0.11492665
Azadirachtin -0.1987028 0.010820823 0.44064453 0.07633196 0.05620173 -0.09635484 -0.20256162 0.03515886 0.112135015 -0.24892633 0.54483175 0.06768058 0.19551252 -0.24679536 -0.43070534 -0.48632082 -0.25297755 -0.001110257 -0.11556316 0.20602387 -0.118121795 -0.060871217 0.30973265 -0.12099856 -0.32688957 0.4718851 -0.37018654 0.08707819 -0.27202234 0.033773337 0.12871835 0.15865743 -0.5266396 -0.0032679131 0.45637175 0.038277283 -0.28374818 0.038162176 0.4911258 0.3894746 0.091502346 -0.032457232 -0.2298078 -0.049464624 -0.09679516 -0.3518741 0.36485958 -0.05276754 -0.32323104 0.12698577 0.28840086 0.20447649 0.14890318 0.15372509 -0.024940776 0.14046894 0.3431337 -0.21501276 0.10492614 0.09893424 0.1799143 -0.16243087 -0.03929309 0.20832492
TP53 -0.15732037 -0.41752955 0.36982602 -0.097626165 -0.010730539 -0.4916464 -0.17061202 -0.28007987 -0.52309805 -0.38204738 0.44718233 0.18131492 -0.055935595 -0.48537937 0.025719708 -0.41022778 -0.12737688 0.21957043 0.48720673 0.10196118 -0.194208 -0.0067182276 0.05214323 0.38771832 0.09263953 0.47071123 0.06087434 0.1508385 0.22981922 -0.001361528 -0.048346803 -0.2538178 -0.5264472 -0.36507282 0.19786337 0.18451372 -0.2968404 -0.11893384 0.58204186 -0.14679986 0.13890849 0.24455804 -0.27164146 -0.26207313 0.4940376 -0.48806968 -0.1722481 -0.51296055 0.33795747 -0.032461587 0.50690854 -0.12216286 -0.0993738 0.32913303 0.12048704 -0.1985218 -0.4534438 -0.38629052 0.18659157 0.23074834 0.07611819 -0.14187953 -0.1203729 0.26184922
Cancer -0.16611713 -0.40645355 0.35587388 -0.11722673 -0.037521996 -0.48000738 -0.16991445 -0.26277828 -0.50987357 -0.3522905 0.4547718 0.20230559 -0.080369934 -0.47267818 0.023429524 -0.4108761 -0.11629165 0.22513187 0.4660451 0.085435554 -0.17205289 -0.04069488 0.07337155 0.37244847 0.10955204 0.46570644 0.055571742 0.12222836 0.24682827 -0.033810105 -0.07214421 -0.2333978 -0.5074602 -0.34847227 0.19257374 0.20568475 -0.2849884 -0.08986326 0.5678137 -0.16114366 0.17052044 0.26843232 -0.28138778 -0.2545701 0.48302713 -0.4815094 -0.18720646 -0.50548065 0.32006925 -0.051280193 0.51881045 -0.13374104 -0.062165536 0.3298364 0.12957962 -0.18162964 -0.44230115 -0.38590702 0.18515055 0.20856105 0.10062191 -0.12913832 -0.09952018 0.27669287
Ashwagandha -0.35845655 0.10387479 0.44454876 0.3075916 -0.17957203 -0.5676479 0.2283212 0.0729325 0.0017933033 -0.43824106 0.28104144 0.26322842 -0.0029699828 0.096350886 -0.21637724 -0.11402715 -0.18681273 0.12835525 0.09687571 -0.08613636 0.10257342 0.05170134 0.38027388 -0.15134184 0.15908098 0.19832405 -0.31344652 0.26295662 -0.22606438 -0.2076427 -0.052067522 -0.006703235 -0.20437641 -0.27110812 0.09148393 0.14041796 0.2355045 0.1567517 0.19425671 -0.04875386 0.18221033 0.24086784 -0.34156007 -0.51873654 0.22727107 -0.1683911 -0.07280006 0.16904794 0.14579676 0.11186887 -0.19956838 0.2406063 -0.17477053 0.25040168 0.48600727 0.13378832 0.29617918 -0.21093261 -0.23603636 0.25933912 -0.1260345 -0.22664009 -0.39657822 -0.20729631
Fever -0.1670188 0.006508486 0.40621606 0.058221925 0.04931219 -0.05186437 -0.1703603 0.018149175 0.0890767 -0.24762972 0.47967812 0.04439305 0.14891799 -0.19638325 -0.4033219 -0.46082744 -0.22282325 -0.02364255 -0.103043735 0.16557972 -0.11624204 -0.0706714 0.30773014 -0.11748069 -0.2901595 0.43012124 -0.33713955 0.0640546 -0.24666704 0.012346481 0.1284432 0.17768338 -0.48110607 -0.0059000542 0.4138524 0.026304463 -0.24113305 0.07427241 0.42284435 0.3600707 0.12590419 -0.05285429 -0.22003981 -0.039872963 -0.086757526 -0.33981374 0.34271875 -0.06733625 -0.3127646 0.13277645 0.23678353 0.19570075 0.13300368 0.14324597 -0.019256238 0.1322357 0.3385277 -0.21082836 0.10135187 0.08005659 0.18751258 -0.14442165 -0.026421843 0.20573658
A -0.3474083 0.08875081 0.43913555 0.29025316 -0.19518039 -0.56738216 0.21467264 0.08309173 -0.003136344 -0.42713806 0.28251752 0.2502299 0.0067583863 0.0921649 -0.23032315 -0.14183982 -0.17451783 0.14632624 0.08722158 -0.11460995 0.08565748 0.074899234 0.35853133 -0.119856976 0.1392589 0.21593891 -0.3112282 0.26533136 -0.22415054 -0.21906981 -0.06927921 -0.01883946 -0.20013724 -0.27605155 0.06747454 0.14272884 0.24892563 0.12545347 0.19166213 -0.046782494 0.17275603 0.22100271 -0.35890403 -0.501054 0.24561572 -0.16178705 -0.10606763 0.15783359 0.17264017 0.102177806 -0.20528114 0.2590345 -0.19353993 0.254584 0.47042784 0.12786077 0.2962459 -0.22140524 -0.2301662 0.28192475 -0.113630116 -0.19917795 -0.40538657 -0.1763642
Diabetes -0.12597407 0.114771225 0.5822242 0.04517819 -0.18410152 -0.23242185 0.012789576 -0.020973928 0.28999278 -0.07427804 0.34397593 0.117187105 -0.12692869 -0.37201095 -0.24493966 -0.0016366318 0.138858 -0.023565222 0.18572572 0.30649635 0.22758822 0.03319389 0.25423148 -0.11594874 -0.0059549734 0.1584064 -0.15740027 0.15116888 0.1817788 0.104513116 -0.027985675 0.20450719 -0.45157626 0.111716226 0.0869035 -0.041961983 -0.009991203 0.36565122 0.6108765 -0.1792875 0.14614482 0.26368606 0.18021029 -0.48141834 0.23223497 -0.21272266 0.029443502 0.097111285 -0.3008835 -0.32769144 0.25258994 -0.19272943 -0.018794604 0.3033719 0.2754687 -0.20068078 0.032665342 0.030616777 -0.04393617 -0.3725217 -0.087467566 -0.15136565 0.25387374 -0.10777529
Tulsi 0.05179092 0.012776892 0.17143449 0.0033602004 0.057495717 -0.26724714 -0.11305836 0.039919846 -0.2433319 0.0833382 0.23647113 0.20621093 -0.05550422 -0.008994731 -0.11344341 0.02762718 -0.23466192 0.14800057 -0.106042445 0.34310704 0.4570767 -0.1428059 0.39418003 -0.24023855 0.12723388 0.29107928 -0.41068292 -0.17224179 -0.13221535 -0.3470973 -0.11438238 -0.20387203 -0.13810796 -0.22012705 0.26556808 0.44160286 -0.1505089 0.21248014 0.29364595 0.07187401 0.14567876 0.273193 -0.21617457 -0.42446974 -0.12885585 0.006264001 -0.18154933 -0.22271056 -0.08513145 -0.1581518 0.27438805 0.40647218 0.37909037 0.21372497 0.39674386 -0.04069126 -0.046282604 -0.066895045 0.20651467 -0.19116515 0.05632625 -0.4452607 -0.08375163 0.20113775
Inflammation 0.038138706 -0.001592007 0.19946735 -0.0281994 0.046543833 -0.28667685 -0.14464244 0.06290252 -0.22801292 0.04708314 0.23539762 0.21077605 -0.055129703 -0.04846385 -0.111032255 -0.0071245283 -0.21265142 0.15018152 -0.08835753 0.3592179 0.42459136 -0.14701161 0.37466076 -0.22488809 0.10572018 0.302773 -0.40690163 -0.14597362 -0.07620372 -0.31184962 -0.13818632 -0.16189422 -0.1532363 -0.21622974 0.28869778 0.40836307 -0.13128705 0.21808566 0.31093714 0.07732379 0.13577756 0.25529605 -0.17810468 -0.38160107 -0.07839256 0.01301142 -0.1509701 -0.23165496 -0.086242266 -0.13848008 0.26727483 0.37875426 0.35078567 0.2285351 0.3685515 -0.014170233 -0.055335596 -0.058004323 0.22325401 -0.20611252 0.0413269 -0.41967127 -0.07527073 0.18429077
Turmeric -0.14546861 0.16233431 0.65749013 0.05411775 -0.24048737 -0.26889393 0.025512472 -0.04922348 0.31039268 -0.0849855 0.36583295 0.16078416 -0.14054878 -0.42577744 -0.23728096 -0.01174548 0.16627762 -0.029894672 0.21748652 0.3036118 0.24344519 0.042145476 0.26850045 -0.09864449 0.028824635 0.13412195 -0.17712238 0.17704958 0.22902733 0.13851486 -0.06635215 0.25863418 -0.456051 0.12273275 0.091035336 -0.09193745 -0.028517134 0.41681957 0.6633158 -0.19568878 0.19832116 0.2802517 0.21878196 -0.54253083 0.2242798 -0.23626497 -0.008450397 0.12828754 -0.31735194 -0.38640523 0.30134258 -0.22991903 -0.017187603 0.30616376 0.29775983 -0.19740917 0.030992812 0.024715852 -0.05370613 -0.4112956 -0.11175293 -0.14684251 0.283585 -0.12978324
Neem -0.19655472 0.013976904 0.39819556 0.0598392 0.062099785 -0.09485557 -0.17373042 0.030735938 0.10219643 -0.2193561 0.49850184 0.08072789 0.1620815 -0.21295474 -0.39805874 -0.4297394 -0.22775687 0.0054412214 -0.09533396 0.1998146 -0.11115348 -0.077051386 0.28670594 -0.11423629 -0.28670752 0.4262299 -0.34225187 0.075340785 -0.24977228 0.015529972 0.120598495 0.13530321 -0.48599428 -0.03161924 0.41726983 0.06267746 -0.26289272 0.044772107 0.44556123 0.32771838 0.074208274 -0.0024959107 -0.2423758 -0.09475134 -0.049893223 -0.33057332 0.31128 -0.040199872 -0.28295267 0.14390352 0.24839194 0.21825457 0.1418582 0.13084242 0.00017005065 0.13094792 0.31095335 -0.17903364 0.11593701 0.101535276 0.13017634 -0.14482969 -0.06314858 0.1899204
